digraph Tree {
node [shape=box, style="filled, rounded", color="black", fontname=helvetica] ;
edge [fontname=helvetica] ;
0 [label="log_max_length <= 0.59\nmse = 132.32\nsamples = 151\nvalue = 10.55", fillcolor="#e5813924"] ;
1 [label="log_max_length <= 0.1\nmse = 33.15\nsamples = 136\nvalue = 7.76", fillcolor="#e581391a"] ;
0 -> 1 [labeldistance=2.5, labelangle=45, headlabel="True"] ;
2 [label="log_max_length <= 0.09\nmse = 132.59\nsamples = 5\nvalue = 14.65", fillcolor="#e5813934"] ;
1 -> 2 ;
3 [label="min_avg_speed <= 0.12\nmse = 5.67\nsamples = 4\nvalue = 3.26", fillcolor="#e5813909"] ;
2 -> 3 ;
4 [label="mse = 0.0\nsamples = 1\nvalue = 7.27", fillcolor="#e5813918"] ;
3 -> 4 ;
5 [label="avg_speed <= 0.1\nmse = 0.41\nsamples = 3\nvalue = 1.92", fillcolor="#e5813904"] ;
3 -> 5 ;
6 [label="mse = 0.0\nsamples = 1\nvalue = 1.1", fillcolor="#e5813901"] ;
5 -> 6 ;
7 [label="log_max_length <= 0.05\nmse = 0.11\nsamples = 2\nvalue = 2.33", fillcolor="#e5813905"] ;
5 -> 7 ;
8 [label="mse = 0.0\nsamples = 1\nvalue = 2.67", fillcolor="#e5813907"] ;
7 -> 8 ;
9 [label="mse = 0.0\nsamples = 1\nvalue = 2.0", fillcolor="#e5813904"] ;
7 -> 9 ;
10 [label="mse = 0.0\nsamples = 1\nvalue = 26.04", fillcolor="#e581395f"] ;
2 -> 10 ;
11 [label="log_max_length <= 0.37\nmse = 26.71\nsamples = 131\nvalue = 7.46", fillcolor="#e5813919"] ;
1 -> 11 ;
12 [label="min_avg_speed <= 0.29\nmse = 23.01\nsamples = 50\nvalue = 5.52", fillcolor="#e5813911"] ;
11 -> 12 ;
13 [label="avg_speed <= 0.25\nmse = 10.55\nsamples = 48\nvalue = 5.03", fillcolor="#e581390f"] ;
12 -> 13 ;
14 [label="log_max_length <= 0.12\nmse = 8.75\nsamples = 46\nvalue = 4.66", fillcolor="#e581390e"] ;
13 -> 14 ;
15 [label="log_max_length <= 0.11\nmse = 1.53\nsamples = 2\nvalue = 10.51", fillcolor="#e5813924"] ;
14 -> 15 ;
16 [label="mse = 0.0\nsamples = 1\nvalue = 9.27", fillcolor="#e5813920"] ;
15 -> 16 ;
17 [label="mse = 0.0\nsamples = 1\nvalue = 11.74", fillcolor="#e5813929"] ;
15 -> 17 ;
18 [label="min_avg_speed <= 0.11\nmse = 7.84\nsamples = 44\nvalue = 4.47", fillcolor="#e581390d"] ;
14 -> 18 ;
19 [label="avg_speed <= 0.14\nmse = 9.96\nsamples = 25\nvalue = 5.26", fillcolor="#e5813910"] ;
18 -> 19 ;
20 [label="avg_speed <= 0.02\nmse = 3.24\nsamples = 17\nvalue = 4.38", fillcolor="#e581390d"] ;
19 -> 20 ;
21 [label="avg_speed <= 0.01\nmse = 0.3\nsamples = 2\nvalue = 7.83", fillcolor="#e581391a"] ;
20 -> 21 ;
22 [label="mse = 0.0\nsamples = 1\nvalue = 8.38", fillcolor="#e581391c"] ;
21 -> 22 ;
23 [label="mse = -0.0\nsamples = 1\nvalue = 7.29", fillcolor="#e5813918"] ;
21 -> 23 ;
24 [label="log_max_length <= 0.13\nmse = 2.44\nsamples = 15\nvalue = 4.1", fillcolor="#e581390c"] ;
20 -> 24 ;
25 [label="mse = 0.0\nsamples = 1\nvalue = 6.44", fillcolor="#e5813915"] ;
24 -> 25 ;
26 [label="avg_speed <= 0.12\nmse = 1.93\nsamples = 14\nvalue = 3.78", fillcolor="#e581390b"] ;
24 -> 26 ;
27 [label="avg_speed <= 0.02\nmse = 0.44\nsamples = 8\nvalue = 4.25", fillcolor="#e581390c"] ;
26 -> 27 ;
28 [label="mse = 0.0\nsamples = 1\nvalue = 3.13", fillcolor="#e5813908"] ;
27 -> 28 ;
29 [label="avg_speed <= 0.02\nmse = 0.25\nsamples = 7\nvalue = 4.45", fillcolor="#e581390d"] ;
27 -> 29 ;
30 [label="mse = 0.0\nsamples = 1\nvalue = 5.84", fillcolor="#e5813913"] ;
29 -> 30 ;
31 [label="log_max_length <= 0.33\nmse = 0.06\nsamples = 6\nvalue = 4.31", fillcolor="#e581390d"] ;
29 -> 31 ;
32 [label="min_avg_speed <= 0.07\nmse = 0.04\nsamples = 5\nvalue = 4.36", fillcolor="#e581390d"] ;
31 -> 32 ;
33 [label="log_max_length <= 0.26\nmse = 0.0\nsamples = 2\nvalue = 4.5", fillcolor="#e581390d"] ;
32 -> 33 ;
34 [label="mse = 0.0\nsamples = 1\nvalue = 4.53", fillcolor="#e581390e"] ;
33 -> 34 ;
35 [label="mse = -0.0\nsamples = 1\nvalue = 4.43", fillcolor="#e581390d"] ;
33 -> 35 ;
36 [label="avg_speed <= 0.1\nmse = 0.05\nsamples = 3\nvalue = 4.28", fillcolor="#e581390d"] ;
32 -> 36 ;
37 [label="mse = 0.0\nsamples = 1\nvalue = 3.86", fillcolor="#e581390b"] ;
36 -> 37 ;
38 [label="log_max_length <= 0.18\nmse = 0.02\nsamples = 2\nvalue = 4.37", fillcolor="#e581390d"] ;
36 -> 38 ;
39 [label="mse = 0.0\nsamples = 1\nvalue = 4.61", fillcolor="#e581390e"] ;
38 -> 39 ;
40 [label="mse = 0.0\nsamples = 1\nvalue = 4.31", fillcolor="#e581390d"] ;
38 -> 40 ;
41 [label="mse = -0.0\nsamples = 1\nvalue = 3.89", fillcolor="#e581390b"] ;
31 -> 41 ;
42 [label="avg_speed <= 0.13\nmse = 3.33\nsamples = 6\nvalue = 3.11", fillcolor="#e5813908"] ;
26 -> 42 ;
43 [label="min_avg_speed <= 0.09\nmse = 0.3\nsamples = 3\nvalue = 1.97", fillcolor="#e5813904"] ;
42 -> 43 ;
44 [label="min_avg_speed <= 0.06\nmse = 0.04\nsamples = 2\nvalue = 2.22", fillcolor="#e5813905"] ;
43 -> 44 ;
45 [label="mse = 0.0\nsamples = 1\nvalue = 2.43", fillcolor="#e5813906"] ;
44 -> 45 ;
46 [label="mse = 0.0\nsamples = 1\nvalue = 2.02", fillcolor="#e5813904"] ;
44 -> 46 ;
47 [label="mse = 0.0\nsamples = 1\nvalue = 0.95", fillcolor="#e5813900"] ;
43 -> 47 ;
48 [label="min_avg_speed <= 0.05\nmse = 3.46\nsamples = 3\nvalue = 4.54", fillcolor="#e581390e"] ;
42 -> 48 ;
49 [label="mse = 0.0\nsamples = 1\nvalue = 1.71", fillcolor="#e5813903"] ;
48 -> 49 ;
50 [label="log_max_length <= 0.28\nmse = 1.06\nsamples = 2\nvalue = 5.48", fillcolor="#e5813911"] ;
48 -> 50 ;
51 [label="mse = 0.0\nsamples = 1\nvalue = 6.94", fillcolor="#e5813917"] ;
50 -> 51 ;
52 [label="mse = 0.0\nsamples = 1\nvalue = 4.76", fillcolor="#e581390e"] ;
50 -> 52 ;
53 [label="log_max_length <= 0.28\nmse = 20.82\nsamples = 8\nvalue = 7.9", fillcolor="#e581391a"] ;
19 -> 53 ;
54 [label="log_max_length <= 0.23\nmse = 10.28\nsamples = 2\nvalue = 12.47", fillcolor="#e581392c"] ;
53 -> 54 ;
55 [label="mse = 0.0\nsamples = 1\nvalue = 10.2", fillcolor="#e5813923"] ;
54 -> 55 ;
56 [label="mse = 0.0\nsamples = 1\nvalue = 17.0", fillcolor="#e581393d"] ;
54 -> 56 ;
57 [label="avg_speed <= 0.19\nmse = 10.44\nsamples = 6\nvalue = 5.61", fillcolor="#e5813912"] ;
53 -> 57 ;
58 [label="min_avg_speed <= 0.1\nmse = 7.69\nsamples = 5\nvalue = 4.72", fillcolor="#e581390e"] ;
57 -> 58 ;
59 [label="avg_speed <= 0.17\nmse = 0.2\nsamples = 2\nvalue = 2.35", fillcolor="#e5813905"] ;
58 -> 59 ;
60 [label="mse = 0.0\nsamples = 1\nvalue = 1.91", fillcolor="#e5813904"] ;
59 -> 60 ;
61 [label="mse = 0.0\nsamples = 1\nvalue = 2.8", fillcolor="#e5813907"] ;
59 -> 61 ;
62 [label="log_max_length <= 0.34\nmse = 6.48\nsamples = 3\nvalue = 6.29", fillcolor="#e5813914"] ;
58 -> 62 ;
63 [label="min_avg_speed <= 0.11\nmse = 0.03\nsamples = 2\nvalue = 8.09", fillcolor="#e581391b"] ;
62 -> 63 ;
64 [label="mse = 0.0\nsamples = 1\nvalue = 7.9", fillcolor="#e581391a"] ;
63 -> 64 ;
65 [label="mse = 0.0\nsamples = 1\nvalue = 8.27", fillcolor="#e581391c"] ;
63 -> 65 ;
66 [label="mse = 0.0\nsamples = 1\nvalue = 2.7", fillcolor="#e5813907"] ;
62 -> 66 ;
67 [label="mse = 0.0\nsamples = 1\nvalue = 10.11", fillcolor="#e5813923"] ;
57 -> 67 ;
68 [label="log_max_length <= 0.16\nmse = 2.88\nsamples = 19\nvalue = 3.39", fillcolor="#e5813909"] ;
18 -> 68 ;
69 [label="log_max_length <= 0.14\nmse = 0.05\nsamples = 4\nvalue = 1.78", fillcolor="#e5813903"] ;
68 -> 69 ;
70 [label="avg_speed <= 0.15\nmse = 0.0\nsamples = 2\nvalue = 2.01", fillcolor="#e5813904"] ;
69 -> 70 ;
71 [label="mse = 0.0\nsamples = 1\nvalue = 2.0", fillcolor="#e5813904"] ;
70 -> 71 ;
72 [label="mse = 0.0\nsamples = 1\nvalue = 2.01", fillcolor="#e5813904"] ;
70 -> 72 ;
73 [label="avg_speed <= 0.13\nmse = 0.0\nsamples = 2\nvalue = 1.56", fillcolor="#e5813902"] ;
69 -> 73 ;
74 [label="mse = 0.0\nsamples = 1\nvalue = 1.61", fillcolor="#e5813903"] ;
73 -> 74 ;
75 [label="mse = 0.0\nsamples = 1\nvalue = 1.5", fillcolor="#e5813902"] ;
73 -> 75 ;
76 [label="log_max_length <= 0.29\nmse = 2.84\nsamples = 15\nvalue = 3.68", fillcolor="#e581390a"] ;
68 -> 76 ;
77 [label="log_max_length <= 0.28\nmse = 3.35\nsamples = 10\nvalue = 4.04", fillcolor="#e581390c"] ;
76 -> 77 ;
78 [label="log_max_length <= 0.2\nmse = 1.0\nsamples = 9\nvalue = 3.64", fillcolor="#e581390a"] ;
77 -> 78 ;
79 [label="log_max_length <= 0.17\nmse = 0.66\nsamples = 4\nvalue = 4.3", fillcolor="#e581390d"] ;
78 -> 79 ;
80 [label="avg_speed <= 0.18\nmse = 0.22\nsamples = 2\nvalue = 3.33", fillcolor="#e5813909"] ;
79 -> 80 ;
81 [label="mse = 0.0\nsamples = 1\nvalue = 4.0", fillcolor="#e581390c"] ;
80 -> 81 ;
82 [label="mse = 0.0\nsamples = 1\nvalue = 3.0", fillcolor="#e5813908"] ;
80 -> 82 ;
83 [label="min_avg_speed <= 0.21\nmse = 0.02\nsamples = 2\nvalue = 4.88", fillcolor="#e581390f"] ;
79 -> 83 ;
84 [label="mse = 0.0\nsamples = 1\nvalue = 5.19", fillcolor="#e5813910"] ;
83 -> 84 ;
85 [label="mse = 0.0\nsamples = 1\nvalue = 4.8", fillcolor="#e581390f"] ;
83 -> 85 ;
86 [label="min_avg_speed <= 0.16\nmse = 0.32\nsamples = 5\nvalue = 2.88", fillcolor="#e5813907"] ;
78 -> 86 ;
87 [label="log_max_length <= 0.22\nmse = 0.13\nsamples = 3\nvalue = 2.62", fillcolor="#e5813906"] ;
86 -> 87 ;
88 [label="mse = 0.0\nsamples = 1\nvalue = 3.34", fillcolor="#e5813909"] ;
87 -> 88 ;
89 [label="log_max_length <= 0.25\nmse = 0.0\nsamples = 2\nvalue = 2.44", fillcolor="#e5813906"] ;
87 -> 89 ;
90 [label="mse = 0.0\nsamples = 1\nvalue = 2.42", fillcolor="#e5813906"] ;
89 -> 90 ;
91 [label="mse = 0.0\nsamples = 1\nvalue = 2.46", fillcolor="#e5813906"] ;
89 -> 91 ;
92 [label="min_avg_speed <= 0.18\nmse = 0.23\nsamples = 2\nvalue = 3.52", fillcolor="#e581390a"] ;
86 -> 92 ;
93 [label="mse = 0.0\nsamples = 1\nvalue = 4.0", fillcolor="#e581390c"] ;
92 -> 93 ;
94 [label="mse = -0.0\nsamples = 1\nvalue = 3.05", fillcolor="#e5813908"] ;
92 -> 94 ;
95 [label="mse = -0.0\nsamples = 1\nvalue = 10.05", fillcolor="#e5813922"] ;
77 -> 95 ;
96 [label="avg_speed <= 0.22\nmse = 0.21\nsamples = 5\nvalue = 2.72", fillcolor="#e5813907"] ;
76 -> 96 ;
97 [label="log_max_length <= 0.32\nmse = 0.06\nsamples = 3\nvalue = 3.14", fillcolor="#e5813908"] ;
96 -> 97 ;
98 [label="min_avg_speed <= 0.17\nmse = 0.02\nsamples = 2\nvalue = 2.98", fillcolor="#e5813908"] ;
97 -> 98 ;
99 [label="mse = 0.0\nsamples = 1\nvalue = 3.11", fillcolor="#e5813908"] ;
98 -> 99 ;
100 [label="mse = 0.0\nsamples = 1\nvalue = 2.86", fillcolor="#e5813907"] ;
98 -> 100 ;
101 [label="mse = 0.0\nsamples = 1\nvalue = 3.47", fillcolor="#e581390a"] ;
97 -> 101 ;
102 [label="avg_speed <= 0.24\nmse = 0.01\nsamples = 2\nvalue = 2.3", fillcolor="#e5813905"] ;
96 -> 102 ;
103 [label="mse = 0.0\nsamples = 1\nvalue = 2.47", fillcolor="#e5813906"] ;
102 -> 103 ;
104 [label="mse = 0.0\nsamples = 1\nvalue = 2.22", fillcolor="#e5813905"] ;
102 -> 104 ;
105 [label="avg_speed <= 0.27\nmse = 3.41\nsamples = 2\nvalue = 10.85", fillcolor="#e5813925"] ;
13 -> 105 ;
106 [label="mse = 0.0\nsamples = 1\nvalue = 11.91", fillcolor="#e581392a"] ;
105 -> 106 ;
107 [label="mse = -0.0\nsamples = 1\nvalue = 7.65", fillcolor="#e5813919"] ;
105 -> 107 ;
108 [label="avg_speed <= 0.28\nmse = 152.92\nsamples = 2\nvalue = 22.41", fillcolor="#e5813951"] ;
12 -> 108 ;
109 [label="mse = 0.0\nsamples = 1\nvalue = 34.78", fillcolor="#e5813980"] ;
108 -> 109 ;
110 [label="mse = 0.0\nsamples = 1\nvalue = 10.05", fillcolor="#e5813922"] ;
108 -> 110 ;
111 [label="min_avg_speed <= 0.07\nmse = 25.28\nsamples = 81\nvalue = 8.64", fillcolor="#e581391d"] ;
11 -> 111 ;
112 [label="avg_speed <= 0.09\nmse = 14.17\nsamples = 35\nvalue = 9.84", fillcolor="#e5813922"] ;
111 -> 112 ;
113 [label="avg_speed <= 0.07\nmse = 1.52\nsamples = 7\nvalue = 6.39", fillcolor="#e5813915"] ;
112 -> 113 ;
114 [label="avg_speed <= 0.05\nmse = 0.08\nsamples = 3\nvalue = 5.47", fillcolor="#e5813911"] ;
113 -> 114 ;
115 [label="log_max_length <= 0.4\nmse = 0.0\nsamples = 2\nvalue = 5.34", fillcolor="#e5813911"] ;
114 -> 115 ;
116 [label="mse = 0.0\nsamples = 1\nvalue = 5.39", fillcolor="#e5813911"] ;
115 -> 116 ;
117 [label="mse = 0.0\nsamples = 1\nvalue = 5.33", fillcolor="#e5813911"] ;
115 -> 117 ;
118 [label="mse = -0.0\nsamples = 1\nvalue = 6.09", fillcolor="#e5813913"] ;
114 -> 118 ;
119 [label="log_max_length <= 0.39\nmse = 1.25\nsamples = 4\nvalue = 7.31", fillcolor="#e5813918"] ;
113 -> 119 ;
120 [label="mse = 0.0\nsamples = 1\nvalue = 5.42", fillcolor="#e5813911"] ;
119 -> 120 ;
121 [label="avg_speed <= 0.08\nmse = 0.65\nsamples = 3\nvalue = 7.69", fillcolor="#e581391a"] ;
119 -> 121 ;
122 [label="log_max_length <= 0.42\nmse = 0.24\nsamples = 2\nvalue = 8.6", fillcolor="#e581391d"] ;
121 -> 122 ;
123 [label="mse = 0.0\nsamples = 1\nvalue = 9.08", fillcolor="#e581391f"] ;
122 -> 123 ;
124 [label="mse = 0.0\nsamples = 1\nvalue = 8.11", fillcolor="#e581391b"] ;
122 -> 124 ;
125 [label="mse = 0.0\nsamples = 1\nvalue = 7.08", fillcolor="#e5813917"] ;
121 -> 125 ;
126 [label="log_max_length <= 0.54\nmse = 13.35\nsamples = 28\nvalue = 10.85", fillcolor="#e5813926"] ;
112 -> 126 ;
127 [label="min_avg_speed <= 0.05\nmse = 12.04\nsamples = 27\nvalue = 11.05", fillcolor="#e5813926"] ;
126 -> 127 ;
128 [label="min_avg_speed <= 0.04\nmse = 11.33\nsamples = 22\nvalue = 10.42", fillcolor="#e5813924"] ;
127 -> 128 ;
129 [label="log_max_length <= 0.41\nmse = 10.15\nsamples = 20\nvalue = 11.0", fillcolor="#e5813926"] ;
128 -> 129 ;
130 [label="log_max_length <= 0.4\nmse = 15.66\nsamples = 6\nvalue = 12.99", fillcolor="#e581392e"] ;
129 -> 130 ;
131 [label="avg_speed <= 0.19\nmse = 6.51\nsamples = 5\nvalue = 11.87", fillcolor="#e5813929"] ;
130 -> 131 ;
132 [label="avg_speed <= 0.17\nmse = 2.19\nsamples = 4\nvalue = 10.12", fillcolor="#e5813923"] ;
131 -> 132 ;
133 [label="avg_speed <= 0.15\nmse = 0.63\nsamples = 3\nvalue = 10.77", fillcolor="#e5813925"] ;
132 -> 133 ;
134 [label="log_max_length <= 0.38\nmse = 0.24\nsamples = 2\nvalue = 11.15", fillcolor="#e5813927"] ;
133 -> 134 ;
135 [label="mse = 0.0\nsamples = 1\nvalue = 11.84", fillcolor="#e5813929"] ;
134 -> 135 ;
136 [label="mse = 0.0\nsamples = 1\nvalue = 10.81", fillcolor="#e5813925"] ;
134 -> 136 ;
137 [label="mse = -0.0\nsamples = 1\nvalue = 9.61", fillcolor="#e5813921"] ;
133 -> 137 ;
138 [label="mse = 0.0\nsamples = 1\nvalue = 7.52", fillcolor="#e5813919"] ;
132 -> 138 ;
139 [label="mse = 0.0\nsamples = 1\nvalue = 14.8", fillcolor="#e5813934"] ;
131 -> 139 ;
140 [label="mse = -0.0\nsamples = 1\nvalue = 21.87", fillcolor="#e581394f"] ;
130 -> 140 ;
141 [label="min_avg_speed <= 0.01\nmse = 4.8\nsamples = 14\nvalue = 10.06", fillcolor="#e5813923"] ;
129 -> 141 ;
142 [label="avg_speed <= 0.14\nmse = 3.2\nsamples = 11\nvalue = 10.63", fillcolor="#e5813925"] ;
141 -> 142 ;
143 [label="log_max_length <= 0.43\nmse = 1.08\nsamples = 5\nvalue = 9.84", fillcolor="#e5813922"] ;
142 -> 143 ;
144 [label="avg_speed <= 0.13\nmse = 0.71\nsamples = 3\nvalue = 10.58", fillcolor="#e5813924"] ;
143 -> 144 ;
145 [label="avg_speed <= 0.12\nmse = 0.06\nsamples = 2\nvalue = 11.25", fillcolor="#e5813927"] ;
144 -> 145 ;
146 [label="mse = 0.0\nsamples = 1\nvalue = 11.59", fillcolor="#e5813928"] ;
145 -> 146 ;
147 [label="mse = -0.0\nsamples = 1\nvalue = 11.08", fillcolor="#e5813926"] ;
145 -> 147 ;
148 [label="mse = -0.0\nsamples = 1\nvalue = 9.57", fillcolor="#e5813921"] ;
144 -> 148 ;
149 [label="log_max_length <= 0.47\nmse = 0.05\nsamples = 2\nvalue = 8.93", fillcolor="#e581391e"] ;
143 -> 149 ;
150 [label="mse = 0.0\nsamples = 1\nvalue = 9.14", fillcolor="#e581391f"] ;
149 -> 150 ;
151 [label="mse = 0.0\nsamples = 1\nvalue = 8.71", fillcolor="#e581391d"] ;
149 -> 151 ;
152 [label="avg_speed <= 0.22\nmse = 4.12\nsamples = 6\nvalue = 11.63", fillcolor="#e5813928"] ;
142 -> 152 ;
153 [label="log_max_length <= 0.45\nmse = 2.64\nsamples = 5\nvalue = 12.19", fillcolor="#e581392b"] ;
152 -> 153 ;
154 [label="log_max_length <= 0.42\nmse = 1.2\nsamples = 4\nvalue = 12.76", fillcolor="#e581392d"] ;
153 -> 154 ;
155 [label="mse = 0.0\nsamples = 1\nvalue = 10.9", fillcolor="#e5813926"] ;
154 -> 155 ;
156 [label="avg_speed <= 0.18\nmse = 0.42\nsamples = 3\nvalue = 13.23", fillcolor="#e581392e"] ;
154 -> 156 ;
157 [label="log_max_length <= 0.44\nmse = 0.0\nsamples = 2\nvalue = 12.58", fillcolor="#e581392c"] ;
156 -> 157 ;
158 [label="mse = 0.0\nsamples = 1\nvalue = 12.53", fillcolor="#e581392c"] ;
157 -> 158 ;
159 [label="mse = 0.0\nsamples = 1\nvalue = 12.64", fillcolor="#e581392c"] ;
157 -> 159 ;
160 [label="mse = -0.0\nsamples = 1\nvalue = 13.87", fillcolor="#e5813931"] ;
156 -> 160 ;
161 [label="mse = -0.0\nsamples = 1\nvalue = 9.32", fillcolor="#e5813920"] ;
153 -> 161 ;
162 [label="mse = 0.0\nsamples = 1\nvalue = 8.3", fillcolor="#e581391c"] ;
152 -> 162 ;
163 [label="log_max_length <= 0.45\nmse = 2.54\nsamples = 3\nvalue = 7.05", fillcolor="#e5813917"] ;
141 -> 163 ;
164 [label="mse = 0.0\nsamples = 1\nvalue = 5.09", fillcolor="#e5813910"] ;
163 -> 164 ;
165 [label="avg_speed <= 0.22\nmse = 0.95\nsamples = 2\nvalue = 8.03", fillcolor="#e581391b"] ;
163 -> 165 ;
166 [label="mse = 0.0\nsamples = 1\nvalue = 9.0", fillcolor="#e581391e"] ;
165 -> 166 ;
167 [label="mse = 0.0\nsamples = 1\nvalue = 7.06", fillcolor="#e5813917"] ;
165 -> 167 ;
168 [label="log_max_length <= 0.42\nmse = 0.37\nsamples = 2\nvalue = 6.31", fillcolor="#e5813914"] ;
128 -> 168 ;
169 [label="mse = -0.0\nsamples = 1\nvalue = 5.96", fillcolor="#e5813913"] ;
168 -> 169 ;
170 [label="mse = -0.0\nsamples = 1\nvalue = 7.36", fillcolor="#e5813918"] ;
168 -> 170 ;
171 [label="min_avg_speed <= 0.07\nmse = 6.71\nsamples = 5\nvalue = 13.61", fillcolor="#e5813930"] ;
127 -> 171 ;
172 [label="log_max_length <= 0.5\nmse = 3.92\nsamples = 4\nvalue = 12.92", fillcolor="#e581392d"] ;
171 -> 172 ;
173 [label="min_avg_speed <= 0.06\nmse = 0.34\nsamples = 3\nvalue = 11.71", fillcolor="#e5813929"] ;
172 -> 173 ;
174 [label="log_max_length <= 0.47\nmse = 0.1\nsamples = 2\nvalue = 11.96", fillcolor="#e581392a"] ;
173 -> 174 ;
175 [label="mse = 0.0\nsamples = 1\nvalue = 12.28", fillcolor="#e581392b"] ;
174 -> 175 ;
176 [label="mse = -0.0\nsamples = 1\nvalue = 11.64", fillcolor="#e5813929"] ;
174 -> 176 ;
177 [label="mse = 0.0\nsamples = 1\nvalue = 10.7", fillcolor="#e5813925"] ;
173 -> 177 ;
178 [label="mse = 0.0\nsamples = 1\nvalue = 15.96", fillcolor="#e5813939"] ;
172 -> 178 ;
179 [label="mse = -0.0\nsamples = 1\nvalue = 18.4", fillcolor="#e5813942"] ;
171 -> 179 ;
180 [label="mse = -0.0\nsamples = 1\nvalue = 2.84", fillcolor="#e5813907"] ;
126 -> 180 ;
181 [label="min_avg_speed <= 0.13\nmse = 32.5\nsamples = 46\nvalue = 7.62", fillcolor="#e5813919"] ;
111 -> 181 ;
182 [label="log_max_length <= 0.52\nmse = 7.24\nsamples = 36\nvalue = 6.8", fillcolor="#e5813916"] ;
181 -> 182 ;
183 [label="min_avg_speed <= 0.11\nmse = 6.0\nsamples = 32\nvalue = 6.43", fillcolor="#e5813915"] ;
182 -> 183 ;
184 [label="min_avg_speed <= 0.1\nmse = 5.36\nsamples = 24\nvalue = 6.84", fillcolor="#e5813916"] ;
183 -> 184 ;
185 [label="log_max_length <= 0.45\nmse = 3.3\nsamples = 19\nvalue = 6.39", fillcolor="#e5813915"] ;
184 -> 185 ;
186 [label="log_max_length <= 0.4\nmse = 1.25\nsamples = 11\nvalue = 5.66", fillcolor="#e5813912"] ;
185 -> 186 ;
187 [label="avg_speed <= 0.17\nmse = 1.64\nsamples = 4\nvalue = 4.96", fillcolor="#e581390f"] ;
186 -> 187 ;
188 [label="mse = 0.0\nsamples = 1\nvalue = 7.36", fillcolor="#e5813918"] ;
187 -> 188 ;
189 [label="min_avg_speed <= 0.08\nmse = 0.58\nsamples = 3\nvalue = 4.48", fillcolor="#e581390d"] ;
187 -> 189 ;
190 [label="log_max_length <= 0.38\nmse = 0.0\nsamples = 2\nvalue = 4.1", fillcolor="#e581390c"] ;
189 -> 190 ;
191 [label="mse = 0.0\nsamples = 1\nvalue = 4.0", fillcolor="#e581390c"] ;
190 -> 191 ;
192 [label="mse = 0.0\nsamples = 1\nvalue = 4.14", fillcolor="#e581390c"] ;
190 -> 192 ;
193 [label="mse = -0.0\nsamples = 1\nvalue = 6.0", fillcolor="#e5813913"] ;
189 -> 193 ;
194 [label="log_max_length <= 0.43\nmse = 0.63\nsamples = 7\nvalue = 6.04", fillcolor="#e5813913"] ;
186 -> 194 ;
195 [label="min_avg_speed <= 0.09\nmse = 0.17\nsamples = 4\nvalue = 6.59", fillcolor="#e5813915"] ;
194 -> 195 ;
196 [label="log_max_length <= 0.42\nmse = 0.01\nsamples = 3\nvalue = 6.87", fillcolor="#e5813916"] ;
195 -> 196 ;
197 [label="log_max_length <= 0.41\nmse = 0.0\nsamples = 2\nvalue = 6.92", fillcolor="#e5813917"] ;
196 -> 197 ;
198 [label="mse = 0.0\nsamples = 1\nvalue = 7.0", fillcolor="#e5813917"] ;
197 -> 198 ;
199 [label="mse = -0.0\nsamples = 1\nvalue = 6.89", fillcolor="#e5813916"] ;
197 -> 199 ;
200 [label="mse = 0.0\nsamples = 1\nvalue = 6.7", fillcolor="#e5813916"] ;
196 -> 200 ;
201 [label="mse = 0.0\nsamples = 1\nvalue = 6.02", fillcolor="#e5813913"] ;
195 -> 201 ;
202 [label="log_max_length <= 0.44\nmse = 0.38\nsamples = 3\nvalue = 5.38", fillcolor="#e5813911"] ;
194 -> 202 ;
203 [label="log_max_length <= 0.43\nmse = 0.09\nsamples = 2\nvalue = 5.1", fillcolor="#e5813910"] ;
202 -> 203 ;
204 [label="mse = 0.0\nsamples = 1\nvalue = 5.4", fillcolor="#e5813911"] ;
203 -> 204 ;
205 [label="mse = 0.0\nsamples = 1\nvalue = 4.8", fillcolor="#e581390f"] ;
203 -> 205 ;
206 [label="mse = -0.0\nsamples = 1\nvalue = 6.5", fillcolor="#e5813915"] ;
202 -> 206 ;
207 [label="min_avg_speed <= 0.09\nmse = 4.37\nsamples = 8\nvalue = 7.52", fillcolor="#e5813919"] ;
185 -> 207 ;
208 [label="min_avg_speed <= 0.09\nmse = 3.49\nsamples = 7\nvalue = 7.86", fillcolor="#e581391a"] ;
207 -> 208 ;
209 [label="log_max_length <= 0.48\nmse = 0.98\nsamples = 6\nvalue = 7.32", fillcolor="#e5813918"] ;
208 -> 209 ;
210 [label="min_avg_speed <= 0.08\nmse = 0.21\nsamples = 4\nvalue = 8.12", fillcolor="#e581391b"] ;
209 -> 210 ;
211 [label="avg_speed <= 0.23\nmse = 0.05\nsamples = 3\nvalue = 7.91", fillcolor="#e581391a"] ;
210 -> 211 ;
212 [label="min_avg_speed <= 0.08\nmse = 0.0\nsamples = 2\nvalue = 8.04", fillcolor="#e581391b"] ;
211 -> 212 ;
213 [label="mse = 0.0\nsamples = 1\nvalue = 8.0", fillcolor="#e581391b"] ;
212 -> 213 ;
214 [label="mse = -0.0\nsamples = 1\nvalue = 8.13", fillcolor="#e581391b"] ;
212 -> 214 ;
215 [label="mse = -0.0\nsamples = 1\nvalue = 7.52", fillcolor="#e5813919"] ;
211 -> 215 ;
216 [label="mse = 0.0\nsamples = 1\nvalue = 8.94", fillcolor="#e581391e"] ;
210 -> 216 ;
217 [label="min_avg_speed <= 0.08\nmse = 0.15\nsamples = 2\nvalue = 6.33", fillcolor="#e5813914"] ;
209 -> 217 ;
218 [label="mse = 0.0\nsamples = 1\nvalue = 5.94", fillcolor="#e5813913"] ;
217 -> 218 ;
219 [label="mse = 0.0\nsamples = 1\nvalue = 6.72", fillcolor="#e5813916"] ;
217 -> 219 ;
220 [label="mse = -0.0\nsamples = 1\nvalue = 12.71", fillcolor="#e581392d"] ;
208 -> 220 ;
221 [label="mse = -0.0\nsamples = 1\nvalue = 4.07", fillcolor="#e581390c"] ;
207 -> 221 ;
222 [label="log_max_length <= 0.44\nmse = 9.58\nsamples = 5\nvalue = 8.95", fillcolor="#e581391e"] ;
184 -> 222 ;
223 [label="min_avg_speed <= 0.1\nmse = 1.01\nsamples = 3\nvalue = 11.04", fillcolor="#e5813926"] ;
222 -> 223 ;
224 [label="min_avg_speed <= 0.1\nmse = 0.35\nsamples = 2\nvalue = 11.95", fillcolor="#e581392a"] ;
223 -> 224 ;
225 [label="mse = 0.0\nsamples = 1\nvalue = 12.54", fillcolor="#e581392c"] ;
224 -> 225 ;
226 [label="mse = 0.0\nsamples = 1\nvalue = 11.35", fillcolor="#e5813927"] ;
224 -> 226 ;
227 [label="mse = 0.0\nsamples = 1\nvalue = 10.13", fillcolor="#e5813923"] ;
223 -> 227 ;
228 [label="log_max_length <= 0.5\nmse = 0.6\nsamples = 2\nvalue = 4.78", fillcolor="#e581390e"] ;
222 -> 228 ;
229 [label="mse = 0.0\nsamples = 1\nvalue = 5.55", fillcolor="#e5813911"] ;
228 -> 229 ;
230 [label="mse = 0.0\nsamples = 1\nvalue = 4.0", fillcolor="#e581390c"] ;
228 -> 230 ;
231 [label="log_max_length <= 0.43\nmse = 5.59\nsamples = 8\nvalue = 5.01", fillcolor="#e581390f"] ;
183 -> 231 ;
232 [label="avg_speed <= 0.21\nmse = 0.86\nsamples = 5\nvalue = 3.57", fillcolor="#e581390a"] ;
231 -> 232 ;
233 [label="min_avg_speed <= 0.12\nmse = 0.0\nsamples = 2\nvalue = 2.31", fillcolor="#e5813905"] ;
232 -> 233 ;
234 [label="mse = 0.0\nsamples = 1\nvalue = 2.29", fillcolor="#e5813905"] ;
233 -> 234 ;
235 [label="mse = 0.0\nsamples = 1\nvalue = 2.32", fillcolor="#e5813905"] ;
233 -> 235 ;
236 [label="log_max_length <= 0.39\nmse = 0.1\nsamples = 3\nvalue = 4.2", fillcolor="#e581390c"] ;
232 -> 236 ;
237 [label="mse = 0.0\nsamples = 1\nvalue = 4.71", fillcolor="#e581390e"] ;
236 -> 237 ;
238 [label="avg_speed <= 0.25\nmse = 0.02\nsamples = 2\nvalue = 4.03", fillcolor="#e581390c"] ;
236 -> 238 ;
239 [label="mse = 0.0\nsamples = 1\nvalue = 4.24", fillcolor="#e581390c"] ;
238 -> 239 ;
240 [label="mse = -0.0\nsamples = 1\nvalue = 3.92", fillcolor="#e581390b"] ;
238 -> 240 ;
241 [label="log_max_length <= 0.47\nmse = 4.83\nsamples = 3\nvalue = 7.18", fillcolor="#e5813918"] ;
231 -> 241 ;
242 [label="log_max_length <= 0.44\nmse = 0.01\nsamples = 2\nvalue = 8.45", fillcolor="#e581391c"] ;
241 -> 242 ;
243 [label="mse = 0.0\nsamples = 1\nvalue = 8.3", fillcolor="#e581391c"] ;
242 -> 243 ;
244 [label="mse = 0.0\nsamples = 1\nvalue = 8.53", fillcolor="#e581391d"] ;
242 -> 244 ;
245 [label="mse = -0.0\nsamples = 1\nvalue = 3.38", fillcolor="#e5813909"] ;
241 -> 245 ;
246 [label="avg_speed <= 0.25\nmse = 6.27\nsamples = 4\nvalue = 10.06", fillcolor="#e5813923"] ;
182 -> 246 ;
247 [label="log_max_length <= 0.54\nmse = 0.42\nsamples = 2\nvalue = 12.02", fillcolor="#e581392a"] ;
246 -> 247 ;
248 [label="mse = 0.0\nsamples = 1\nvalue = 12.47", fillcolor="#e581392c"] ;
247 -> 248 ;
249 [label="mse = -0.0\nsamples = 1\nvalue = 11.1", fillcolor="#e5813926"] ;
247 -> 249 ;
250 [label="min_avg_speed <= 0.1\nmse = 0.75\nsamples = 2\nvalue = 7.13", fillcolor="#e5813917"] ;
246 -> 250 ;
251 [label="mse = 0.0\nsamples = 1\nvalue = 8.0", fillcolor="#e581391b"] ;
250 -> 251 ;
252 [label="mse = -0.0\nsamples = 1\nvalue = 6.27", fillcolor="#e5813914"] ;
250 -> 252 ;
253 [label="min_avg_speed <= 0.13\nmse = 115.52\nsamples = 10\nvalue = 10.72", fillcolor="#e5813925"] ;
181 -> 253 ;
254 [label="mse = 0.0\nsamples = 1\nvalue = 47.0", fillcolor="#e58139ae"] ;
253 -> 254 ;
255 [label="log_max_length <= 0.44\nmse = 6.33\nsamples = 9\nvalue = 7.7", fillcolor="#e581391a"] ;
253 -> 255 ;
256 [label="log_max_length <= 0.39\nmse = 3.4\nsamples = 6\nvalue = 6.62", fillcolor="#e5813915"] ;
255 -> 256 ;
257 [label="log_max_length <= 0.38\nmse = 0.59\nsamples = 2\nvalue = 8.33", fillcolor="#e581391c"] ;
256 -> 257 ;
258 [label="mse = 0.0\nsamples = 1\nvalue = 7.0", fillcolor="#e5813917"] ;
257 -> 258 ;
259 [label="mse = 0.0\nsamples = 1\nvalue = 8.77", fillcolor="#e581391e"] ;
257 -> 259 ;
260 [label="log_max_length <= 0.43\nmse = 1.43\nsamples = 4\nvalue = 5.25", fillcolor="#e5813910"] ;
256 -> 260 ;
261 [label="avg_speed <= 0.4\nmse = 0.35\nsamples = 3\nvalue = 5.79", fillcolor="#e5813912"] ;
260 -> 261 ;
262 [label="min_avg_speed <= 0.26\nmse = 0.03\nsamples = 2\nvalue = 6.12", fillcolor="#e5813914"] ;
261 -> 262 ;
263 [label="mse = 0.0\nsamples = 1\nvalue = 6.0", fillcolor="#e5813913"] ;
262 -> 263 ;
264 [label="mse = 0.0\nsamples = 1\nvalue = 6.36", fillcolor="#e5813914"] ;
262 -> 264 ;
265 [label="mse = -0.0\nsamples = 1\nvalue = 4.79", fillcolor="#e581390f"] ;
261 -> 265 ;
266 [label="mse = 0.0\nsamples = 1\nvalue = 3.1", fillcolor="#e5813908"] ;
260 -> 266 ;
267 [label="log_max_length <= 0.46\nmse = 1.18\nsamples = 3\nvalue = 10.93", fillcolor="#e5813926"] ;
255 -> 267 ;
268 [label="log_max_length <= 0.45\nmse = 0.24\nsamples = 2\nvalue = 11.65", fillcolor="#e5813929"] ;
267 -> 268 ;
269 [label="mse = 0.0\nsamples = 1\nvalue = 11.16", fillcolor="#e5813927"] ;
268 -> 269 ;
270 [label="mse = 0.0\nsamples = 1\nvalue = 12.13", fillcolor="#e581392a"] ;
268 -> 270 ;
271 [label="mse = -0.0\nsamples = 1\nvalue = 9.5", fillcolor="#e5813920"] ;
267 -> 271 ;
272 [label="avg_speed <= 0.75\nmse = 373.68\nsamples = 15\nvalue = 32.1", fillcolor="#e5813976"] ;
0 -> 272 [labeldistance=2.5, labelangle=-45, headlabel="False"] ;
273 [label="min_avg_speed <= 0.41\nmse = 206.82\nsamples = 13\nvalue = 25.03", fillcolor="#e581395b"] ;
272 -> 273 ;
274 [label="min_avg_speed <= 0.38\nmse = 166.6\nsamples = 12\nvalue = 27.54", fillcolor="#e5813965"] ;
273 -> 274 ;
275 [label="min_avg_speed <= 0.08\nmse = 85.69\nsamples = 11\nvalue = 24.18", fillcolor="#e5813958"] ;
274 -> 275 ;
276 [label="log_max_length <= 0.71\nmse = 79.97\nsamples = 6\nvalue = 18.43", fillcolor="#e5813942"] ;
275 -> 276 ;
277 [label="mse = 0.0\nsamples = 1\nvalue = 35.0", fillcolor="#e5813981"] ;
276 -> 277 ;
278 [label="log_max_length <= 0.99\nmse = 46.55\nsamples = 5\nvalue = 16.06", fillcolor="#e5813939"] ;
276 -> 278 ;
279 [label="log_max_length <= 0.81\nmse = 15.73\nsamples = 4\nvalue = 18.41", fillcolor="#e5813942"] ;
278 -> 279 ;
280 [label="mse = 0.0\nsamples = 1\nvalue = 14.48", fillcolor="#e5813933"] ;
279 -> 280 ;
281 [label="avg_speed <= 0.42\nmse = 0.56\nsamples = 3\nvalue = 22.34", fillcolor="#e5813951"] ;
279 -> 281 ;
282 [label="avg_speed <= 0.15\nmse = 0.0\nsamples = 2\nvalue = 21.81", fillcolor="#e581394f"] ;
281 -> 282 ;
283 [label="mse = 0.0\nsamples = 1\nvalue = 21.87", fillcolor="#e581394f"] ;
282 -> 283 ;
284 [label="mse = 0.0\nsamples = 1\nvalue = 21.75", fillcolor="#e581394f"] ;
282 -> 284 ;
285 [label="mse = 0.0\nsamples = 1\nvalue = 23.4", fillcolor="#e5813955"] ;
281 -> 285 ;
286 [label="mse = -0.0\nsamples = 1\nvalue = 1.97", fillcolor="#e5813904"] ;
278 -> 286 ;
287 [label="avg_speed <= 0.64\nmse = 25.24\nsamples = 5\nvalue = 29.93", fillcolor="#e581396e"] ;
275 -> 287 ;
288 [label="log_max_length <= 0.88\nmse = 17.18\nsamples = 4\nvalue = 31.14", fillcolor="#e5813972"] ;
287 -> 288 ;
289 [label="log_max_length <= 0.84\nmse = 0.91\nsamples = 2\nvalue = 26.43", fillcolor="#e5813960"] ;
288 -> 289 ;
290 [label="mse = 0.0\nsamples = 1\nvalue = 27.1", fillcolor="#e5813963"] ;
289 -> 290 ;
291 [label="mse = -0.0\nsamples = 1\nvalue = 25.08", fillcolor="#e581395b"] ;
289 -> 291 ;
292 [label="log_max_length <= 0.93\nmse = 0.27\nsamples = 2\nvalue = 34.67", fillcolor="#e5813980"] ;
288 -> 292 ;
293 [label="mse = 0.0\nsamples = 1\nvalue = 35.19", fillcolor="#e5813982"] ;
292 -> 293 ;
294 [label="mse = -0.0\nsamples = 1\nvalue = 34.15", fillcolor="#e581397e"] ;
292 -> 294 ;
295 [label="mse = -0.0\nsamples = 1\nvalue = 21.48", fillcolor="#e581394e"] ;
287 -> 295 ;
296 [label="mse = -0.0\nsamples = 1\nvalue = 54.44", fillcolor="#e58139cb"] ;
274 -> 296 ;
297 [label="mse = -0.0\nsamples = 1\nvalue = 2.4", fillcolor="#e5813905"] ;
273 -> 297 ;
298 [label="min_avg_speed <= 0.76\nmse = 41.76\nsamples = 2\nvalue = 60.37", fillcolor="#e58139e1"] ;
272 -> 298 ;
299 [label="mse = 0.0\nsamples = 1\nvalue = 68.29", fillcolor="#e58139ff"] ;
298 -> 299 ;
300 [label="mse = 0.0\nsamples = 1\nvalue = 55.09", fillcolor="#e58139cd"] ;
298 -> 300 ;
}